308
0.617885
1.74623
7.77281
5.40171
2.2279
1.62746
-2.00079
4.96856
2.011
2.54557
2.61563
0.998397
-0.622697
0.367359
-0.817323
2.19569
0.965466
0.171865
1.29833
1.25838
-0.521582
-3.09956
-0.228078
0.510178
-0.282987
-2.13203
-2.96536
-2.48411
0.454467
1.9688
1.56191
-0.0154278
-1.52961
2.83277
-1.82079
-3.86206
-1.70404
-0.158322
0.819717
1.61117
-3.63611
-2.8602
-2.6306
-1.16805
-2.61778
-0.742189
1.06587
-0.104455
0.260778
0.787974
1.83404
-0.476853
-0.855348
-1.59487
1.38144
-2.62973
-0.713447
-2.28265
5.03329
-1.00515
2.75167
1.6753
1.61023
1.84834
-3.31645
2.23786
0.238808
-3.05103
-0.00367746
-1.20499
-1.50805
-3.23744
-1.51696
-2.62496
-6.2957
-3.43236
0.709383
-3.28972
-1.47913
0.568354
-0.751604
-0.960426
-1.74481
-0.72197
-1.55808
-0.0143673
-1.75722
-2.48767
0.591283
1.68226
-0.713937
3.02046
-0.16632
-0.439392
0.284462
-2.33472
-0.699118
-0.946964
-0.327585
1.67602
-0.553211
-0.757393
-0.138851
-1.38405
-1.88523
-0.186278
-0.875117
-2.61654
-2.51661
-0.171726
-4.70703
-1.73744
-2.79065
-1.9578
-4.59813
0.613707
0.441491
0.731308
0.701051
2.57377
-3.11916
-0.982398
3.06753
0.708274
-1.11862
-2.62416
-1.01556
2.19364
-2.25686
2.52736
-0.409959
2.6699
0.449128
1.83707
-1.77081
1.51635
0.268819
2.50379
-1.16891
-2.63609
0.469599
-0.146577
-0.856735
0.120508
-1.26164
-0.171181
-1.90038
-0.676632
3.28657
6.54698
1.16553
1.7336
2.46223
-1.87347
1.66788
2.27086
5.77493
-1.58105
3.15796
-0.383091
2.63111
-1.00987
-1.48942
-1.70847
-2.55928
1.65493
-0.486881
0.329229
1.45969
-1.06276
-4.15907
1.14478
-1.34099
-1.5926
-2.0059
0.741183
-0.622213
0.351622
0.946247
-0.00156623
-0.413352
-0.37993
-0.380534
-0.940369
-1.04558
0.0258664
-0.989696
1.40715
0.708261
-0.869468
0.2198
1.53118
3.27244
4.34237
0.770578
0.855497
2.38122
2.6558
2.0524
5.47496
3.50406
2.66397
0.43699
-0.337146
2.49483
1.18706
-3.0827
2.65756
3.72805
0.286061
2.58439
-0.209191
2.26482
-2.60182
-1.93668
0.715548
2.86037
0.515247
0.1871
3.92957
-1.31839
1.02394
-1.02248
1.03027
1.28989
0.0655417
-0.846034
-0.230264
-1.26977
-1.55156
0.115216
-0.0446961
0.432267
-1.04479
-1.13567
2.52051
4.00382
-1.42384
0.406404
-4.41139
-1.17713
-2.02211
0.0880317
-2.30631
0.565252
-2.04491
-2.25061
-1.76335
-0.487445
-1.84829
-1.65408
-0.868106
-1.94508
-1.90326
-2.28702
-0.458038
-4.07716
-2.49769
-2.69151
-0.463347
-0.612789
-0.77344
-1.14062
0.905483
2.43683
-0.716197
-1.49626
-1.9303
-4.67858
-3.17959
-3.04166
-2.09944
0.707478
-2.8417
2.62022
1.09669
3.80208
-0.239193
1.32529
0.0792311
1.4097
1.76749
2.00244
0.850234
1.69025
2.5222
0.00773269
-0.365194
5.03789
0.684174
0.590101
-0.26841
1.45339
-1.05699
1.49838
3.55213
0.458094
1.7553
0.654009
1.08082
0.0833868
1.70869
-1.22976
-1.50266
0.135998
4.21264
-0.626657
2.18668
