230
0.43975
-2.9925
-1.73625
0.436057
-2.18138
-2.79698
-1.60251
5.59979
1.15978
2.54259
4.38621
0.480683
-2.25074
2.47899
-1.7087
0.931055
0.135783
2.09161
-4.31227
-2.49131
0.693487
-0.29753
1.2571
6.32766
-3.12817
-2.39697
4.41297
-0.848702
-2.89899
-2.14985
-1.31462
-0.780415
0.687451
4.12332
-0.212499
2.26967
3.6057
0.615623
-2.7226
-1.65477
-2.46337
1.60663
-0.561033
4.17387
-0.699899
0.478548
1.35444
4.45039
1.99591
4.6879
6.969
-2.83176
-5.57521
-3.08647
-1.43762
-3.19532
-0.484951
-0.070527
0.407237
-1.24719
-0.311272
-0.135405
4.21433
2.97266
1.16471
0.67193
3.82725
0.298378
7.41395
-1.05058
-1.59638
-1.8415
3.41042
-1.26762
-1.60934
-3.06
3.15198
0.561211
2.28125
-2.78931
1.98541
4.80619
1.04137
4.2521
1.34287
-3.62571
-0.509154
4.11779
-2.33413
-2.65063
1.67676
-0.331169
3.53364
2.58832
-2.59068
-0.404332
-3.88139
-2.98696
-2.88136
-4.6416
-0.947245
-3.30664
-2.3272
-1.70332
6.09213
-1.30173
-2.48937
-0.448738
-0.665583
4.75413
0.0902279
2.05439
1.26995
-1.69247
-0.099442
-0.672376
-1.72946
-1.09715
4.90248
-2.75867
-0.19433
-1.48843
-0.748961
-1.85205
-2.67505
2.53332
5.01628
-1.51006
-1.47454
1.1826
5.09429
3.35834
-3.49621
-0.380352
0.200484
-1.03941
2.73862
-0.161568
4.66678
1.60914
-3.02085
-2.16947
0.269768
-2.36914
0.577812
0.0911925
-0.853367
2.41496
0.0541864
-3.4023
-4.36867
-1.46565
-0.736317
2.21607
0.677354
3.32501
-0.833624
-3.07184
-0.181513
-1.42499
7.79034
-1.1528
-2.41145
-2.33068
-0.382447
2.38007
0.291946
-2.41303
-2.75323
3.78182
-1.87511
-4.0149
-0.608301
-0.413386
-1.25902
-0.186727
4.79057
-0.0113182
-1.12493
-2.4204
4.60851
2.0687
-0.931331
3.05624
-2.58705
1.33335
2.36337
-0.939323
-0.812979
3.47397
-1.09339
-1.36215
-3.46619
-0.832331
-1.08929
-0.811258
-0.514285
-0.372719
1.71498
-2.13905
-3.55763
-0.536746
-2.9995
-0.0323668
1.92737
0.143101
-0.700259
-0.917657
0.608397
-1.03686
0.776627
-2.8584
0.544949
-1.54492
0.761557
1.83094
-0.589969
-1.2003
-0.805544
-1.79289
-1.66685
0.208728
-2.01899
-0.12534
-3.18253
-0.547027
2.59106
1.40179
1.49138
-1.38126
